tree
version=v4
num_class=1
num_tree_per_iteration=1
label_index=0
max_feature_idx=15
objective=binary sigmoid:1
feature_names=rsi ema_dist_fast ema_dist_slow atr_ratio volume_ratio ret_1h ret_6h ret_24h realized_vol downside_vol funding_zscore oi_change_pct btc_1h_return regime breakout_strength spread_pct
feature_infos=[5.1522248243561108:100] [-0.28765913472936128:0.33844120713331949] [-0.41483327349200022:0.44894550722090493] [0.0014771418556907556:0.15581336268947407] [0.03508252058035706:121.57483351668758] [-0.12888869961459015:0.16853270477312909] [-0.26276276276276267:0.63217845277645934] [-0.30164765525982251:1.2302204928664073] [0.074457003967985033:6.5644838980905256] [0.022325911536142145:7.1074155037424545] none none [-0.030945974933798248:0.034525908588434406] [0:1] [0:0.10689366452693273] none
tree_sizes=1631 1328 1738 1330 1642 1644 1671 1771 1553 1772 1445 1757 1654 1685 1672 1420 1639 1449 1559 1746 1778 1525 1651 1341 1672 1559 1552

Tree=0
num_leaves=14
num_cat=0
split_feature=7 9 7 13 12 2 12 12 12 9 9 12 12
split_gain=212.496 63.4471 55.3599 44.1331 40.0651 30.0842 16.9576 16.841 15.5144 6.82884 6.44288 3.08718 2.17705
threshold=-0.02785540886846782 0.26050066526923249 0.04922336704629638 1.0000000180025095e-35 -0.011103368075038532 -0.067206123636240719 -0.00017808416224623921 0.0091205682468081823 0.0057979518688336959 0.69509022442224722 0.70083657866460936 0.0036376701253008075 0.0017835274701809569
decision_type=2 2 2 2 2 2 2 2 2 2 2 2 2
left_child=5 2 6 4 -3 9 -2 8 -7 -1 -5 -11 -4
right_child=1 3 12 10 -6 7 -8 -9 -10 11 -12 -13 -14
leaf_value=-0.58893236858672382 -0.59413986368327365 -0.58050868106774289 -0.58832306974069615 -0.59377157187970075 -0.5884321456149354 -0.58536087692564787 -0.59116975529202909 -0.57798783067225323 -0.59188171056298289 -0.57873632081198101 -0.59997875768167486 -0.58753902059106866 -0.58141434662857183
leaf_weight=27.592819690704346 366.17367562651634 63.956185966730118 52.837554842233658 25.3612060546875 2095.1966346204281 822.71455782651901 402.46000805497169 36.908123999834061 51.150698930025101 168.67323705554008 23.903523474931717 30.957154303789139 34.261369228363037
leaf_count=92 1343 189 177 92 7147 2690 1421 101 181 495 97 101 100
internal_value=-0.587843 -0.589248 -0.591623 -0.588348 -0.588131 -0.584145 -0.59256 -0.585206 -0.585701 -0.580489 -0.597092 -0.579674 -0.584472
internal_weight=4202.15 3064.15 855.733 2208.42 2159.15 1138 768.634 910.773 873.865 227.223 49.2647 199.63 87.0989
internal_count=14226 10566 3041 7525 7336 3660 2764 2972 2871 688 189 596 277
is_linear=0
shrinkage=1


Tree=1
num_leaves=11
num_cat=0
split_feature=7 3 3 4 1 5 4 3 0 4
split_gain=207.381 111.477 51.4912 41.8213 19.1029 14.8104 19.7739 9.43869 6.67874 6.56346
threshold=-0.02785540886846782 0.0063411203108882878 0.023461558818412921 0.54335402258751808 -0.048793272059121602 0.0015247986917603653 1.0247488772199793 0.0071372649320180061 59.340324799408918 0.85819683436592775
decision_type=2 2 2 2 2 2 2 2 2 2
left_child=4 5 3 -3 -1 6 -2 -6 -7 -9
right_child=1 2 -4 -5 7 8 -8 9 -10 -11
leaf_value=0.014161222147644011 -0.0028089629277669929 0.0032196169040183708 0.011127822649366554 0.0060733006220150933 0.0018711134515513087 0.004219839888848915 0.0030681518607350673 0.0080535135636362852 -0.0010189151954333 0.010671676290828635
leaf_weight=130.66054934263229 217.97441872954369 819.18492990732193 157.04562778770924 1704.1066998839378 26.399392262101173 78.957597076892853 65.991388291120529 539.81284114718437 25.09745666384697 444.24245589971542
leaf_count=387 828 2879 491 5771 93 272 231 1774 94 1406
internal_value=0.00622511 0.00483739 0.00556019 0.00516717 0.00987346 -0.000144699 -0.00135124 0.00917587 0.00289006 0.00934098
internal_weight=4209.47 3068.36 2680.34 2523.29 1141.12 388.021 283.966 1010.45 104.055 984.055
internal_count=14226 10566 9141 8650 3660 1425 1059 3273 366 3180
is_linear=0
shrinkage=0.01


Tree=2
num_leaves=15
num_cat=0
split_feature=2 3 4 9 3 2 2 5 4 3 3 9 9 9
split_gain=184.893 89.9078 59.5089 49.6085 32.9095 19.8595 18.8155 13.3884 18.7607 11.3866 8.51519 4.16262 1.39235 1.22991
threshold=-0.012702459155529386 0.0063411203108882878 0.64384132979675945 0.50457461992025665 0.028588630566037252 -0.065226198239559594 0.050804119488297911 0.0015247986917603653 0.92002202774792929 0.0060253087470682953 0.014404570590722711 0.14341820311450659 1.3800633021294073 0.69509022442224722
decision_type=2 2 2 2 2 2 2 2 2 2 2 2 2 2
left_child=3 7 4 9 -3 13 -4 8 -2 -1 -11 -9 -7 -5
right_child=1 2 6 5 -6 12 -8 11 -10 10 -12 -13 -14 -15
leaf_value=0 -0.003014631246015699 0.0026971348788853398 0.0060264280828898256 0.0059243011906484275 0.01240567148625382 0.0092462828899240301 0.010328684231948363 0.0048022508783338407 0.002746673594840644 0.0072859455244520411 0.0035890825394863462 0.00057023990315220206 0.0039444860824405445 0.013785600671455447
leaf_weight=26.766010269522667 190.11172087490559 877.48722499608994 1146.7654659748077 28.745588302612305 28.185001358389854 717.41153617203236 138.84544357657433 42.546259522438049 68.279030472040176 522.11540970206261 119.36950305104256 58.55464231967926 32.663843870162964 218.89759129285812
leaf_count=98 725 3099 3874 94 81 2313 437 144 240 1731 414 212 111 653
internal_value=0.00615372 0.00442409 0.00518149 0.0087538 0.00314237 0.0102302 0.00657492 -0.000180852 -0.00140935 0.00641639 0.00667902 0.00271315 0.00908349 0.0131773
internal_weight=4216.74 2550.77 2191.28 1665.97 905.672 997.719 1285.61 359.492 258.391 668.251 641.485 101.101 750.075 247.643
internal_count=14226 8812 7491 5414 3180 3171 4311 1321 965 2243 2145 356 2424 747
is_linear=0
shrinkage=0.01


Tree=3
num_leaves=11
num_cat=0
split_feature=7 3 3 4 2 5 4 3 4 8
split_gain=198.393 106.391 49.6852 39.9932 28.024 14.2917 19.1349 7.95437 7.55442 4.48969
threshold=-0.02785540886846782 0.0063411203108882878 0.023461558818412921 0.54335402258751808 -0.067206123636240719 0.0015247986917603653 1.0247488772199793 0.0071372649320180061 0.82116310597933406 0.37764892709845671
decision_type=2 2 2 2 2 2 2 2 2 2
left_child=4 5 3 -3 -1 6 -2 -6 -9 -7
right_child=1 2 -4 -5 7 9 -8 8 -10 -11
leaf_value=0.013154668669292846 -0.0027643487970798381 0.0031424289517091386 0.01088504319936396 0.0059300093142987658 0.0018202486192733531 0.0039044355556103923 0.0030142863818034184 0.0074008290686111838 0.010132912911308453 -0.00042467067762089769
leaf_weight=229.62992158532143 217.6549413651228 820.85671757161617 157.91907361149788 1710.0645596235991 26.44916433095932 79.349541679024696 66.099304139614105 474.04283244907856 416.8463673889637 24.864691615104675
leaf_count=688 828 2879 491 5771 93 274 231 1561 1318 92
internal_value=0.00608415 0.00472748 0.00543149 0.00504577 0.00964254 -0.000140411 -0.00132741 0.00862022 0.00878856 0.00283724
internal_weight=4223.78 3076.81 2688.84 2530.92 1146.97 387.968 283.754 917.338 890.889 104.214
internal_count=14226 10566 9141 8650 3660 1425 1059 2972 2879 366
is_linear=0
shrinkage=0.01


Tree=4
num_leaves=14
num_cat=0
split_feature=9 3 3 4 12 12 6 6 12 4 12 12 4
split_gain=167.441 89.8498 43.8176 39.1124 27.2916 24.6454 23.3768 20.5329 19.4606 16.6341 15.8843 14.0775 9.38852
threshold=0.51356413631312037 0.0063411203108882878 0.023846753711470454 0.89776112599733238 -0.0060339693624368853 0.0074552189173331404 -0.0086294720750965653 -0.017810685294934566 0.0037589172496880212 2.3207017524830476 -0.00017808416224623921 -0.00076988896823398923 1.1719476302299663
decision_type=2 2 2 2 2 2 2 2 2 2 2 2 2
left_child=1 10 6 4 -3 -4 8 -5 -2 -8 11 -1 -12
right_child=2 3 5 7 -6 -7 9 -9 -10 -11 12 -13 -14
leaf_value=-0.00034361792450333397 0.0081730234181566774 0.011090500374993921 0.013115023814640381 0.0026774037045064615 0.0037126102045736608 0.0033421679002640513 0.0065997850829628835 0.0074960303337846057 0.014658452821957895 0 0.00048131149445819021 -0.0066674175368051083 0.0052617020799823932
leaf_weight=127.41339141130447 448.12893742322922 46.971817925572395 283.68458805978298 124.28003144264221 1309.5149741917849 40.437576100230217 710.06459790468216 761.36190634965897 74.205890238285065 41.391488090157509 174.43461860716343 41.451435580849648 47.38884861767292
leaf_count=470 1453 142 850 434 4545 138 2364 2505 213 150 635 168 159
internal_value=0.00601484 0.00442817 0.00857912 0.00519613 0.0040547 0.0120622 0.00759798 0.00686845 0.00937122 0.00624539 0 -0.00223781 0.00172862
internal_weight=4230.73 2632.82 1597.91 2242.13 1356.49 324.122 1273.79 885.642 522.335 751.456 390.688 168.865 221.823
internal_count=14226 9058 5168 7626 4687 988 4180 2939 1666 2514 1432 638 794
is_linear=0
shrinkage=0.01


Tree=5
num_leaves=14
num_cat=0
split_feature=3 3 6 5 4 5 3 3 6 5 3 5 5
split_gain=201.924 86.661 24.9546 22.9672 22.0043 16.8568 13.437 12.7295 8.45759 7.53193 10.1923 5.90035 4.91412
threshold=0.0068846815834767627 0.023846753711470454 -0.017120059910152526 0.0028754322548436577 0.94297728330486408 -0.011475688624234313 0.0060253087470682953 0.0039594367409984477 -0.0014218106594784394 0.0071135155092516564 0.026909559623238377 0.0013761154880329587 0.0017050063940962092
decision_type=2 2 2 2 2 2 2 2 2 2 2 2 2
left_child=4 2 3 -2 7 -4 12 11 -9 -3 -11 -1 -6
right_child=1 9 5 -5 6 -7 -8 8 -10 10 -12 -13 -14
leaf_value=-0.0058144614914232484 0.0066227511550421506 0.012696780378625717 0.009219332412509414 0.011910466891447469 0.0018647659374080136 0.0052622850438226567 0.0067539093840219243 0.0015448817320688516 -0.002094473156348219 0.0010533908524830787 0.0090462421337046094 0 -0.0023051746408112354
leaf_weight=76.388840362429619 514.32004886865616 236.47853069007397 130.99880149960518 128.30665096640587 76.263653591275215 2610.7724577486515 44.252243548631668 105.55183160305023 130.17087195813656 26.734568491578102 76.899727165699005 20.801550954580307 31.084259390830994
leaf_count=304 1702 708 415 389 271 8848 144 378 490 94 241 76 118
internal_value=0.00569868 0.00648685 0.00596303 0.00786014 -0.000348459 0.0054878 0.00267679 -0.00179313 -0.000427597 0.0113515 0.00734648 -0.00466289 0.000478535
internal_weight=4209.02 3724.51 3384.4 642.627 484.513 2741.77 151.6 332.913 235.723 340.113 103.634 97.1904 107.348
internal_count=14178 12397 11354 2091 1781 9263 533 1248 868 1043 335 380 389
is_linear=0
shrinkage=0.01


Tree=6
num_leaves=14
num_cat=0
split_feature=7 9 12 12 7 12 12 9 12 2 2 12 7
split_gain=186.373 76.7026 66.3532 70.6599 34.4949 23.112 46.9313 23.8876 16.2139 16.0585 15.9145 15.5052 10.7193
threshold=-0.029235991100281019 0.19992866077568403 -0.0060339693624368853 -0.00031562889233138764 0.027306638855970958 0.0042023955599911353 0.008881999498462469 0.29792375494749551 0.00046138260271011427 -0.056580236717295014 -0.079877852269945801 -0.00117223750320089 -0.0047606548042619093
decision_type=2 2 2 2 2 2 2 2 2 2 2 2 2
left_child=5 4 12 -4 8 7 9 -1 -2 -7 -9 -6 -3
right_child=1 2 3 -5 11 6 -8 10 -10 -11 -12 -13 -14
leaf_value=0.0016208413453231841 -0.0022903527245145771 0.0060107598935832118 0.0024382613106857247 0.0059588846698545462 -3.4404181845127053e-06 -0.0048012653742346865 0.012335502777051595 0.014054660321823172 0.0018085108140383657 0.0030760063526685429 0.009274871242206658 0.0079432329515353867 0.012255253776602415
leaf_weight=41.287552788853645 238.65468470752239 86.644225984811783 1008.859820753336 1412.6673481762409 31.850281655788422 28.240799352526665 42.840886116027832 136.28451642394066 146.27649454772472 68.939892217516899 766.10746969282627 69.788692593574524 136.92141959071159
leaf_count=145 899 286 3542 4735 116 110 124 393 521 237 2433 224 413
internal_value=0.00563464 0.00436711 0.00503682 0.00451229 0.000678166 0.00921498 0.00473955 0.0098119 -0.000701082 0.000459181 0.0101538 0.00558619 0.0102389
internal_weight=4215.36 3131.66 2645.09 2421.53 486.57 1083.7 140.022 943.68 384.931 97.1807 902.392 101.639 223.566
internal_count=14178 10736 8976 8277 1760 3442 471 2971 1420 347 2826 340 699
is_linear=0
shrinkage=0.01


Tree=7
num_leaves=15
num_cat=0
split_feature=3 7 3 2 4 3 3 2 3 6 2 6 9 4
split_gain=194.476 125.829 46.5088 22.9719 21.5895 13.0985 12.3817 11.0609 18.0617 8.3233 5.99463 3.26394 0.876293 0.293026
threshold=0.0068846815834767627 -0.029235991100281019 0.021737403906480459 -0.01428468752595544 0.94297728330486408 0.0060253087470682953 0.0039594367409984477 -0.079877852269945801 0.015033134896285473 -0.0014218106594784394 0.0080157183170212025 0.0028339559918921791 1.9556055818470954 0.3765209475306513
decision_type=2 2 2 2 2 2 2 2 2 2 2 2 2 2
left_child=4 7 3 -3 6 10 11 12 -9 -8 -6 -1 -2 -4
right_child=1 2 13 -5 5 -7 9 8 -10 -11 -12 -13 -14 -15
leaf_value=-0.0056525881269244242 0.013582310539940284 0.0066807884542225042 0.0039268026769733394 0.0041525246868513487 0.0018564299948262246 0.0066515013802956055 0.0015100697250834897 0.01004658359207985 0.0066343582538667002 -0.0020985882852815373 -0.0029320376671750012 -0.00070968414158402665 0.0060562085847251836 0.010079081021521708
leaf_weight=71.3856330960989 119.94341461360455 506.19899375736713 24.090146228671074 1947.7576596289873 81.41115790605545 44.381519913673401 105.66075982153416 497.62904845178127 418.51020178198814 130.18696981668472 25.992429912090302 25.673414438962936 32.098473876714706 190.60635454952717
leaf_count=284 346 1672 80 6677 289 144 378 1557 1371 490 100 96 102 592
internal_value=0.00557193 0.00634316 0.00513842 0.00470311 -0.00036186 0.00263242 -0.00179318 0.00926812 0.00858708 -0.000445556 0.000461376 -0.00462694 0.0125269 0.00963875
internal_weight=4221.53 3736.83 2668.65 2453.96 484.692 151.785 332.907 1068.18 916.139 235.848 107.404 97.059 152.042 214.697
internal_count=14178 12397 9021 8349 1781 533 1248 3376 2928 868 389 380 448 672
is_linear=0
shrinkage=0.01


Tree=8
num_leaves=13
num_cat=0
split_feature=8 9 6 5 5 6 6 9 9 0 8 5
split_gain=159.714 97.2044 29.3587 26.9199 15.9984 14.2081 13.8327 12.9919 11.9225 5.81255 4.44566 4.38118
threshold=0.31849056745232235 0.51030066096889304 -0.018580747451328258 -0.0023979072935793595 0.0027119257611042395 0.0078405097792751972 -0.0020824041034789849 0.41581236970777685 0.35548716128875996 57.711307224097503 0.18690213724085827 0.0015854753028317072
decision_type=2 2 2 2 2 2 2 2 2 2 2 2
left_child=5 4 9 -4 7 6 10 -2 -6 -3 -1 -8
right_child=1 2 3 -5 8 -7 11 -9 -10 -11 -12 -13
leaf_value=-0.0027693507123868191 0.0035004492742472765 0.010510884869335093 0.0090579300313076636 0.005522163679195469 0.0073780894541402931 0.0037541341198807409 -0.0053317890781514176 0.0057069118084882462 0.0042273337678473896 0.0038513773163196285 0.0014361439892040283 -0.00081860047130583578
leaf_weight=24.303783386945724 1254.6739926487207 457.7813438475132 405.26106138527393 713.09863948822021 369.13317646086216 32.196484059095383 109.77250550687313 414.09704388678074 294.35643681883812 34.200837343931198 80.671932563185692 38.024801343679428
leaf_count=94 4333 1410 1283 2381 1206 110 433 1382 1002 114 289 141
internal_value=0.00550984 0.00603213 0.0079437 0.00688121 0.00467971 -0.00164181 -0.00248388 0.00408466 0.00607863 0.0101538 0.00021934 -0.00435948
internal_weight=4227.57 3942.6 1610.34 1118.36 2332.26 284.97 252.773 1668.77 663.49 491.982 104.976 147.797
internal_count=14178 13111 5188 3664 7923 1067 957 5715 2208 1524 383 574
is_linear=0
shrinkage=0.01


Tree=9
num_leaves=15
num_cat=0
split_feature=3 7 3 2 3 5 3 8 5 2 1 0 1 1
split_gain=186.916 121.736 45.1284 27.9682 17.7152 11.6495 12.7022 10.1662 10.215 7.62074 5.94943 4.17304 3.84106 0.471854
threshold=0.0069735449067396659 -0.029235991100281019 0.023461558818412921 -0.006386806022907518 0.0048669296846506286 0.0082624262611661354 0.025014764271926174 0.49879968444832995 0.0013151646221150062 -0.030930488064498555 0.0014256251589191383 58.490938609729305 0.0030616527800930156 0.0036424480788700034
decision_type=2 2 2 2 2 2 2 2 2 2 2 2 2 2
left_child=4 5 3 -3 11 6 -2 8 -6 -7 -9 12 -1 -13
right_child=1 2 -4 -5 7 9 -8 10 -10 -11 -12 13 -14 -15
leaf_value=-0.0021234821324743846 0.0088067795052441649 0.0061254888794713969 0.010088129134803215 0.0038023452452470756 0.0005838569507113753 0.002938098681520381 0.013381763176769866 0.00056654057676839198 0.0049577612779995875 0.0086997894686006178 -0.0056581285977317661 -0.006046620826081762 0.0011231484404429987 -0.0016832846405076768
leaf_weight=139.14027200639248 820.01980812847614 881.41687287390232 165.99045398831367 1611.9083257764578 157.91875280439854 88.948181614279747 120.42151346802711 23.544302955269814 78.811568737030029 41.663645058870316 19.319511204957962 24.76050029695034 36.784817337989807 22.900292232632637
leaf_count=526 2593 2924 510 5529 571 303 346 84 266 128 78 101 132 87
internal_value=0.00544823 0.00621813 0.00502857 0.00464878 -0.000249926 0.00908859 0.00953775 0.00138628 0.00222246 0.00533513 -0.00258947 -0.00231056 -0.00136695 -0.00477906
internal_weight=4233.55 3730.37 2659.32 2493.33 503.18 1071.05 940.441 279.594 236.73 130.612 42.8638 223.586 175.925 47.6608
internal_count=14178 12333 8963 8453 1845 3370 2939 999 837 431 162 846 658 188
is_linear=0
shrinkage=0.01


Tree=10
num_leaves=12
num_cat=0
split_feature=7 8 3 2 3 7 3 2 7 1 13
split_gain=174.089 102.474 46.555 37.3484 19.7365 13.124 9.92695 6.93008 5.21017 4.29161 1.65583
threshold=-0.018862186108433151 0.31849056745232235 0.022783069575523698 -0.0087868818026852827 0.029598838751125203 0.007432842502659521 0.0093037214885954653 -0.012123784876429249 0.011764684177137165 -0.0050988987427523129 1.0000000180025095e-35
decision_type=2 2 2 2 2 2 2 2 2 2 2
left_child=4 5 3 -3 6 9 7 -1 -7 -2 -8
right_child=1 2 -4 -5 -6 8 10 -9 -10 -11 -12
leaf_value=0.0031337360404435888 0.00011676991857125823 0.0066025543940074864 0.0097853550192119592 0.0035714829298579571 0.013115890806408568 0.0040551555736682149 0.0084483674841978849 0.0081104827795991149 -0.00037641388049582201 -0.0035653777913533004 0.004746751537016221
leaf_weight=124.75400553643703 31.631142526865005 568.27739845216274 170.57549273967743 1767.3145937770605 103.49715536832809 34.454097390174866 1156.3157548010349 49.320490449666977 53.416894152760506 163.3685676753521 68.805672898888588
leaf_count=428 115 1868 525 6078 297 118 3671 156 197 629 227
internal_value=0.00561761 0.00410708 0.00475038 0.00433825 0.00836888 -0.00152581 0.00792007 0.00496213 0.00149582 -0.00294275 0.00828869
internal_weight=4291.73 2789.04 2506.17 2335.59 1502.69 282.871 1399.2 174.074 87.871 195 1225.12
internal_count=14309 9530 8471 7946 4779 1059 4482 584 315 744 3898
is_linear=0
shrinkage=0.01


Tree=11
num_leaves=15
num_cat=0
split_feature=7 8 12 12 9 12 3 12 12 9 7 9 8 12
split_gain=170.041 100.266 67.3821 57.5118 29.312 19.7924 14.2074 16.1682 12.9356 11.5128 9.58922 8.6031 5.23619 0.727917
threshold=-0.018862186108433151 0.31849056745232235 -0.0060339693624368853 -0.00025553156147906092 0.29792375494749551 -0.00017808416224623921 0.029598838751125203 -0.0048530511907501897 -0.0028622703310893223 0.70629766343571754 0.0067530179743919847 0.17315333653335144 0.46863341996288504 0.0027450618067857984
decision_type=2 2 2 2 2 2 2 2 2 2 2 2 2 2
left_child=4 5 9 -4 8 10 7 -6 -1 -3 -2 -7 -10 -8
right_child=1 2 3 -5 6 11 13 -9 12 -11 -12 -13 -14 -15
leaf_value=-0.0020380676032163464 -0.005984680400650917 0.011372246621915055 0.0022574590810814405 0.005511808737113078 0.0053892112152153383 0.0019437417637373461 0.014405232592374577 0.0088361869354578668 0.0064007448341493224 0.0027450084233332705 0 -0.0034174196119335933 0.00060582850148881303 0.0060125034239143218
leaf_weight=29.784260392189026 87.705364525318146 164.02448232471943 960.37150140106678 1355.9820979088545 246.84651270508766 129.98611927032471 75.856397822499275 1040.3821401596069 56.248565509915352 28.864089116454124 37.511619299650192 27.533141359686852 28.673075392842293 27.960776761174202
leaf_count=111 350 496 3352 4526 810 464 209 3277 183 97 138 107 101 88
internal_value=0.00555514 0.00406251 0.00469798 0.00418234 0.00827113 -0.00151084 0.00867965 0.00822952 0.002938 0.0103295 -0.00433458 0.000798895 0.00481944 0.0129596
internal_weight=4297.73 2791.98 2509.24 2316.35 1505.75 282.736 1391.05 1287.23 114.706 192.889 125.217 157.519 84.9216 103.817
internal_count=14309 9530 8471 7878 4779 1059 4384 4087 395 593 488 571 284 297
is_linear=0
shrinkage=0.01


Tree=12
num_leaves=14
num_cat=0
split_feature=7 5 4 9 9 7 7 6 13 9 6 0 0
split_gain=166.144 55.8829 48.7342 42.2452 28.5431 26.63 14.6762 5.41011 28.2674 15.2517 3.7733 3.16314 1.96695
threshold=-0.018862186108433151 -0.0064636752874533401 0.69070384144611818 0.22918181380578656 0.29792375494749551 0.04922336704629638 -0.014801368166240612 -0.023985388290904904 1.0000000180025095e-35 0.43894146850574323 0.01295220996836788 48.237681135730206 37.359438879444731
decision_type=2 2 2 2 2 2 2 2 2 2 2 2 2
left_child=4 6 3 -3 11 -4 -2 9 -9 -6 -8 12 -1
right_child=1 2 5 -5 7 -7 10 8 -10 -11 -12 -13 -14
leaf_value=0.00084466700698349094 0.00018221656220483148 -0.0013898357650283899 0.0039917550721958444 0.0029711393038418044 0.0030335834276018648 0.0079433630189329058 0.0084724310845168786 0.0082548547904324875 0.0003469794059201866 0.010780914148278349 0.004179363413042439 0.00027513485359410535 0.0051565493624370377
leaf_weight=26.089590072631836 29.639903917908669 284.74710980057716 972.88319855928421 889.97571671009064 41.603866070508957 227.57474927604198 324.22364062070847 943.43183848261833 51.176041707396507 357.72489231824875 65.844187811017036 40.761074304580688 47.9391960054636
leaf_count=92 105 1058 3318 3074 140 726 1029 2986 180 1078 220 145 158
internal_value=0.00549344 0.00401826 0.00338963 0.00190281 0.00817516 0.00480857 0.00739081 0.00857775 0.00786543 0.010092 0.00789533 0.00291062 0.00403731
internal_weight=4303.62 2794.89 2375.18 1174.72 1508.73 1200.46 419.708 1393.94 994.608 399.329 390.068 114.79 74.0288
internal_count=14309 9530 8176 4132 4779 4044 1354 4384 3166 1218 1249 395 250
is_linear=0
shrinkage=0.01


Tree=13
num_leaves=14
num_cat=0
split_feature=8 3 12 12 12 4 12 12 12 3 12 12 6
split_gain=139.526 89.8579 53.0881 96.5698 32.7904 19.6033 20.2393 14.2665 14.0102 7.07832 3.74667 3.48763 2.60328
threshold=0.31849056745232235 0.022499634113766664 -0.0060339693624368853 -0.0054965158314301812 0.0043337178839061305 0.46590228418938057 -0.00025553156147906092 -0.0070463037365207639 0.00088344014109476021 0.026909559623238377 -0.011103368075038532 -0.0020409055970626584 -0.0011202741582377327
decision_type=2 2 2 2 2 2 2 2 2 2 2 2 2
left_child=5 2 7 -4 10 12 11 -2 -8 -6 -3 -7 -1
right_child=1 4 3 -5 9 6 8 -9 -10 -11 -12 -13 -14
leaf_value=-0.0018075737654295965 0.0073139808179396859 0.0049803247672698045 -0.0087939324939159697 0.0051482793379885594 -0.00036462083329833167 -0.004256726603134614 0.0069890349303395128 0.013205360359470768 0.00018540309452020576 0.0054110555916864903 0.011952514467672162 -0.00030186037165604989 -0.0066656806706603313
leaf_weight=35.234113782644272 241.82809281349182 33.70546355843544 41.228814139962196 3203.3533600121737 27.410766035318375 52.972832560539246 44.677457109093666 87.372683718800545 76.19245719909668 45.756611838936806 329.51441664993763 46.173084914684296 43.938593432307243
leaf_count=134 771 107 167 10683 98 207 146 251 277 147 971 171 179
internal_value=0.00543276 0.00592369 0.00536596 0.00494157 0.0102462 -0.00109381 0.000448267 0.00925029 0.00311854 0.00334339 0.0114831 -0.00270294 -0.00506098
internal_weight=4309.36 4010.17 3573.78 3244.58 436.387 299.189 220.016 329.201 120.87 73.1674 363.22 99.1459 79.1727
internal_count=14309 13195 11872 10850 1323 1114 801 1022 423 245 1078 378 313
is_linear=0
shrinkage=0.01


Tree=14
num_leaves=14
num_cat=0
split_feature=2 8 12 2 9 4 12 12 12 0 2 12 12
split_gain=146.305 86.4648 61.8653 42.9559 31.0791 20.8551 17.3075 44.9879 9.55353 6.42633 5.99181 6.1017 3.78075
threshold=-0.012702459155529386 0.31849056745232235 -0.011807126902955154 0.053355599816809533 0.50457461992025665 0.51275428500405928 -0.00025553156147906092 -0.00081190603134018147 -0.00031562889233138764 36.727272727272776 -0.072762363698101587 0.0033455455716910891 -0.0070463037365207639
decision_type=2 2 2 2 2 2 2 2 2 2 2 2 2
left_child=4 5 -3 -4 6 -2 7 -1 -7 -8 11 -6 -12
right_child=1 2 3 -5 10 8 9 -9 -10 -11 12 -13 -14
leaf_value=0.0054887090014742066 -0.0052524015652117709 0.016731959745783211 0.0038015202700512184 0.0092269005780670401 0.012120060567325801 -0.0020053563699707587 0.0031600942572177666 -0.0037801968177154318 0.0023076701475613242 0.0084386646735086206 0.0049743035727484973 0.0039612818295271593 0.0084752521205346352
leaf_weight=338.20558959245682 84.652736037969589 32.085895761847496 2131.5474765598774 156.86184945702553 158.36730161309242 78.906438946723938 50.742454409599304 53.032619267702103 109.50290285050869 242.19828602671623 101.56624594330788 27.145230010151863 750.26952713727951
leaf_count=1114 336 81 7247 484 456 299 171 200 387 764 331 88 2351
internal_value=0.00537205 0.00383908 0.00446469 0.00421629 0.00764025 -0.00141195 0.00576666 0.00414448 0.000440928 0.00769183 0.00879956 0.011241 0.00813199
internal_weight=4315.08 2593.56 2320.5 2288.41 1721.53 273.062 684.179 391.238 188.409 292.941 1037.35 185.513 851.836
internal_count=14309 8834 7812 7731 5475 1022 2249 1314 686 935 3226 544 2682
is_linear=0
shrinkage=0.01


Tree=15
num_leaves=12
num_cat=0
split_feature=7 3 4 3 1 7 3 5 4 8 1
split_gain=163.319 76.3176 44.4546 31.4129 21.0215 18.5703 14.5619 13.717 8.23532 4.90826 4.65814
threshold=-0.018862186108433151 0.0063411203108882878 0.54724103210694686 0.028588630566037252 -0.0025717411362244009 0.04773837947548288 0.0060253087470682953 0.0015854753028317072 1.1369671427903312 1.6281483830469095 0.0010628469077052101
decision_type=2 2 2 2 2 2 2 2 2 2 2
left_child=3 7 4 6 -3 -4 -1 8 -2 -8 -9
right_child=1 2 5 -5 -6 -7 9 10 -10 -11 -12
leaf_value=0 -0.0026041425061230938 0.0047634437435091709 0.0046307217563491881 0.012945882356785541 0.00114459007927784 0.0074880168465819782 0.007499107553282181 -0.0005285922328334353 0.0016189662089461238 0.0018002022806506634 0.0036256603472398195
leaf_weight=24.757111042737961 214.02134135365486 230.84399507939816 1321.5121143609285 122.64485415816307 544.10884085297585 334.81322120130062 1311.0296566486359 30.966329678893089 47.778755366802216 27.422081843018532 72.706980407238007
leaf_count=90 815 771 4424 346 1916 1068 4162 114 169 92 250
internal_value=0.00513914 0.00368671 0.00432532 0.00782337 0.00228227 0.00525577 0.00726431 -0.000536999 -0.00176542 0.00740398 0.00235951
internal_weight=4282.61 2796.75 2431.28 1485.85 774.953 1656.33 1363.21 365.473 261.8 1338.45 103.673
internal_count=14217 9527 8179 4690 2687 5492 4344 1348 984 4254 364
is_linear=0
shrinkage=0.01


Tree=16
num_leaves=14
num_cat=0
split_feature=2 3 12 3 2 8 12 12 3 12 2 8 12
split_gain=146.262 65.2705 46.1445 48.3201 37.4221 22.3193 15.2272 10.9574 8.56049 5.62169 3.86227 2.04586 5.97175
threshold=-0.012702459155529386 0.0063411203108882878 -0.011807126902955154 0.025014764271926174 -0.072762363698101587 0.4219226501604591 -0.0001127824863955129 0.0042023955599911353 0.0045065292094287916 0.0020757416758152574 0.0027884736094842496 1.0401811413807909 0.0013429020109623215
decision_type=2 2 2 2 2 2 2 2 2 2 2 2 2
left_child=4 8 -3 -4 11 6 -6 -7 9 -2 -10 -1 -13
right_child=1 2 3 -5 5 7 -8 -9 10 -11 -12 12 -14
leaf_value=0.0051293508130838992 -0.0026538495393276917 0.015319200330324507 0.0036016543462544354 0.010124517534381389 -0.0017174038295557222 0.0073993858875576416 0.0062869085182080146 0.003999674007040121 0 0.0013354298160203092 0.0028115403994961115 0.01409711711511524 0.0061964428481780034
leaf_weight=29.044510379433632 148.69874846935272 28.649093389511108 2102.6021714061499 116.28553840517998 53.181452408432961 1245.3441875129938 27.73229855298996 159.86739848554134 109.58075398206711 35.051153719425201 71.492099463939667 117.79640367627144 42.45061782002449
leaf_count=91 568 73 7139 347 196 3956 88 530 400 125 249 323 132
internal_value=0.00508269 0.00357332 0.00420791 0.00399188 0.00739505 0.00675538 0.00130576 0.00705067 -0.000317465 -0.00181161 0.0011619 0.0117759 0.0125498
internal_weight=4287.78 2612.36 2247.54 2218.89 1675.42 1486.13 80.9138 1405.21 364.823 183.75 181.073 189.292 160.247
internal_count=14217 8901 7559 7486 5316 4770 284 4486 1342 693 649 546 455
is_linear=0
shrinkage=0.01


Tree=17
num_leaves=12
num_cat=0
split_feature=7 3 12 3 3 9 12 5 6 12 9
split_gain=156.971 73.0342 61.5225 40.2086 30.3958 16.495 19.5606 13.3869 13.4806 10.7543 5.47229
threshold=-0.018862186108433151 0.0063411203108882878 -0.011103368075038532 0.025014764271926174 0.028588630566037252 1.4530625028223949 0.001531686478564054 0.0015854753028317072 -0.0049420186617084019 0.0013429020109623215 0.17628694891781149
decision_type=2 2 2 2 2 2 2 2 2 2 2
left_child=4 7 -3 -4 5 6 -1 8 -2 -6 -9
right_child=1 2 3 -5 9 -7 -8 10 -10 -11 -12
leaf_value=0.0063574680618773485 0.0023162030190415619 0.013707370015541863 0.0035944365701678698 0.009510338366408265 0.015149592847062271 0.00053044683096929658 0.0094560645556038929 0.0041118689873056637 -0.0028994753425409694 0.0060044993547328854 -0.00014510378028164639
leaf_weight=952.76132936775684 53.868575572967529 59.065773472189903 2259.1541608273983 118.40005023777485 79.576748177409172 41.943380013108253 372.84051539003849 58.864186123013496 207.73746319115162 43.644812732934952 44.891132742166519
leaf_count=3059 190 163 7660 356 210 144 1141 201 794 136 163
internal_value=0.00502785 0.00360457 0.00422794 0.00393183 0.00765449 0.00710571 0.00730075 -0.000528014 -0.00174294 0.0126793 0.00233128
internal_weight=4292.75 2801.98 2436.62 2377.55 1490.77 1367.55 1325.6 365.361 261.606 123.222 103.755
internal_count=14217 9527 8179 8016 4690 4344 4200 1348 984 346 364
is_linear=0
shrinkage=0.01


Tree=18
num_leaves=13
num_cat=0
split_feature=3 3 6 12 12 12 3 12 9 4 12 6
split_gain=125.571 96.3592 55.9482 41.9808 41.9443 20.5802 10.8162 7.05041 6.87677 5.63542 4.42164 3.53575
threshold=0.0063411203108882878 0.025014764271926174 -0.011257940941804099 -0.0060339693624368853 0.0005541798172947755 0.0042023955599911353 0.0045065292094287916 0.0020757416758152574 0.17930163248923317 1.2192694686324035 0.008881999498462469 0.0076391201417844732
decision_type=2 2 2 2 2 2 2 2 2 2 2 2
left_child=6 2 4 -4 -2 -3 7 8 -1 11 -7 -8
right_child=1 5 3 -5 -6 10 9 -9 -10 -11 -12 -13
leaf_value=-0.0015172861992601319 0.0055198207897766581 0.012177603584894635 0.0092231086675300927 0.0038337344531892588 0.010143991171515336 0.00029477118715142157 -0.00035846821839442952 0.0014565418942975971 -0.0066408233843217694 0.0042257673752335396 0.0062368973530424207 0.0031533747914710415
leaf_weight=124.40042063593864 720.08620984852314 249.58040063083172 153.85568915307522 2406.4747000038624 316.31014254689217 26.431093990802765 143.44388437271118 36.827442467212677 30.9512048214674 38.157101273536682 26.415004372596741 24.686175554990768
leaf_count=470 2342 714 470 8096 958 91 526 131 126 128 81 84
internal_value=0.00497364 0.00551893 0.00503099 0.00419611 0.00702414 0.0109431 -0.000342239 -0.00201637 -0.00293843 0.00119228 0.00394385 0.000249109
internal_weight=4297.62 3899.15 3596.73 2560.33 1036.4 302.426 398.466 192.179 155.352 206.287 52.8461 168.13
internal_count=14217 12752 11866 8566 3300 886 1465 727 596 738 172 610
is_linear=0
shrinkage=0.01


Tree=19
num_leaves=15
num_cat=0
split_feature=7 3 2 7 2 9 3 9 8 2 3 9 9 7
split_gain=151.939 69.7041 36.3808 42.2245 29.9369 17.8296 17.2022 13.8291 8.0766 5.71982 5.62299 8.75495 4.99364 4.30676
threshold=-0.018862186108433151 0.0063411203108882878 -0.010776992514940202 0.04773837947548288 -0.072762363698101587 0.80513913747420274 0.0077753351016203341 0.31367512554975469 0.49159482686980643 -0.0046319293005837895 0.0039594367409984477 0.16677413287224921 1.9556055818470954 0.019874234229551483
decision_type=2 2 2 2 2 2 2 2 2 2 2 2 2 2
left_child=4 10 6 -4 5 -1 -3 8 -6 -9 11 -2 -7 -12
right_child=1 2 3 -5 7 12 -8 9 -10 -11 13 -13 -14 -15
leaf_value=0.0033687015894879394 -0.00060680026000547614 -0.00038790261621111591 0.0026490720817047243 0.0062979586940741447 0.0049303418420819471 0.014317351521007644 0.0070032881066515278 0.0068184756281633764 0 0.010228080939283669 0.00099849280795583474 -0.0066197552930413852 0.0058101333694073254 -0.0028055006563257774
leaf_weight=35.018054530024529 119.6249698549509 29.854776442050934 1523.6861741095781 412.49916239082813 99.15576933324337 117.99505631625652 475.98769779503345 1054.9475922137499 47.17301133275032 107.81361585855484 198.56986218690872 22.982293382287025 33.085077330470085 24.05934964120388
leaf_count=113 446 107 5222 1329 327 319 1521 3342 166 322 715 95 101 92
internal_value=0.00491959 0.00352026 0.00412792 0.00345996 0.00749941 0.011497 0.00654861 0.00684069 0.00343609 0.00722767 -0.000517778 -0.00201164 0.0129928 0.000441484
internal_weight=4302.45 2807.26 2442.03 1936.19 1495.19 186.098 505.842 1309.09 146.329 1162.76 365.236 142.607 151.08 222.629
internal_count=14217 9527 8179 6551 4690 533 1628 4157 493 3664 1348 541 420 807
is_linear=0
shrinkage=0.01


Tree=20
num_leaves=15
num_cat=0
split_feature=2 8 4 12 3 3 12 2 4 12 2 12 3 8
split_gain=147.417 73.7271 49.3276 30.6581 26.2589 23.2983 14.4886 13.0719 10.3193 9.16659 8.64656 7.14657 6.25336 0.668352
threshold=-0.010776992514940202 0.33229270244891868 0.60526390108985662 -0.0075213302401517792 0.0081211183182839063 0.025657091382244025 -0.00022114919872040503 -0.079877852269945801 1.1719476302299663 0.0012859735509755945 -0.0044009011146363469 0.00086111224408225173 0.0060253087470682953 2.4304762417576442
decision_type=2 2 2 2 2 2 2 2 2 2 2 2 2 2
left_child=4 6 5 -4 11 -3 10 13 -8 -9 -2 12 -1 -6
right_child=1 2 3 -5 7 -7 8 9 -10 -11 -12 -13 -14 -15
leaf_value=-0.0022160447351528153 0.00034653323696645741 0.0016425771335488871 0.011994334074239067 0.0048289058955204387 0.01171875911115966 0.0093305014694532989 -0.00087678401020859528 0.0065027009112343893 0.0046446123099250477 0.0087369485763271193 -0.0054944614140344464 0.0063234454749920089 0.0025790295347964658 0.004996538315175437
leaf_weight=28.004385933279991 28.985950693488121 783.56397376954556 60.551447778940201 1331.2658080011606 129.46313716471195 33.045174524188042 118.85933955013752 1040.6651982218027 35.429852500557899 442.78396418690681 83.184754997491837 33.190180227160454 80.611757785081863 29.581380248069763
leaf_count=106 106 2726 172 4405 366 95 442 3317 118 1361 331 105 274 91
internal_value=0.00509477 0.00348415 0.00408316 0.00523111 0.00729131 0.00207489 -0.00141239 0.00765523 0.000535776 0.00723032 -0.00399842 0.00278369 0.00117582 0.0108972
internal_weight=4259.19 2474.89 2208.43 1391.82 1784.3 816.609 266.46 1642.49 154.289 1483.45 112.171 141.806 108.616 159.045
internal_count=14015 8395 7398 4577 5620 2821 997 5135 560 4678 437 485 380 457
is_linear=0
shrinkage=0.01


Tree=21
num_leaves=13
num_cat=0
split_feature=2 7 7 4 3 4 2 4 1 1 3 3
split_gain=144.094 70.8368 52.3156 47.9325 25.5826 21.9746 12.8598 11.5613 9.15783 8.67752 5.63405 3.2877
threshold=-0.010776992514940202 0.052650059136605594 -0.016229907479134994 0.60526390108985662 0.0081211183182839063 1.4913669144076869 -0.079877852269945801 1.5501122610579159 -0.0085621801207483739 0.010619040751054317 0.005544155977523715 0.0072109957006552886
decision_type=2 2 2 2 2 2 2 2 2 2 2 2
left_child=4 2 7 -4 10 9 -6 -2 -8 -3 -1 -12
right_child=1 5 3 -5 6 -7 8 -9 -10 -11 11 -13
leaf_value=-0.00090502550365105245 0.0073465914543519367 0.00022006565265422358 1.24170861530467e-05 0.0033435199891800262 0.010778774850369731 0.010941412273322269 0.0064098859350214957 0 0.0086138809499310427 0.0059747522545216102 0.005157767381703972 0.001239323136927878
leaf_weight=25.871843352913857 248.47380164265633 34.502088248729706 714.33498369157314 1107.0369428098202 159.3548618555069 124.58509846031666 1028.6676055192947 24.330860152840614 457.14450949430466 223.59478494524956 62.200786218047142 53.818828657269478
leaf_count=96 785 120 2558 3759 457 368 3264 85 1414 720 204 185
internal_value=0.00503991 0.00344773 0.00269274 0.00204974 0.00720963 0.00738006 0.00756848 0.00672613 0.00714773 0.00527967 0.00275869 0.00366203
internal_weight=4263.92 2476.86 2094.18 1821.37 1787.06 382.682 1645.17 272.805 1485.81 258.097 141.891 116.02
internal_count=14015 8395 7187 6317 5620 1208 5135 870 4678 840 485 389
is_linear=0
shrinkage=0.01


Tree=22
num_leaves=14
num_cat=0
split_feature=2 8 4 1 8 2 5 2 1 1 1 0 0
split_gain=140.81 71.7592 47.1933 30.8359 22.2298 19.8654 14.8343 14.6802 8.53496 7.58814 7.45423 2.69869 2.50676
threshold=-0.010776992514940202 0.33229270244891868 0.60526390108985662 -0.0091142467333743954 0.35943195868852285 0.037347088614375461 0.0013761154880329587 -0.079877852269945801 0.0010628469077052101 -0.0049292344435876425 -0.0085621801207483739 43.396226415094411 49.694372417297537
decision_type=2 2 2 2 2 2 2 2 2 2 2 2 2
left_child=4 6 3 -3 11 -4 9 12 -8 -2 -9 -1 -6
right_child=1 2 5 -5 7 -7 8 10 -10 -11 -12 -13 -14
leaf_value=0.0022217317897179367 0.0016276595168547439 0.0089161043228218138 0.0044419255187609329 0.0014544861692742065 0.011462467406575893 0.0076817177023802844 -0.0025762119903096135 0.0062318665081159217 0.0037145255985601877 -0.003720682552995444 0.0082079369291315468 -0.0015824381267137023 0.0041733919800105062
leaf_weight=31.331574514508247 22.676789939403534 51.335318803787231 1126.355720937252 765.97702084481716 133.83549234271049 268.65063071250916 20.8278618901968 1074.6244803369045 61.044498831033707 161.94732195138931 501.89755110442638 22.252067059278488 25.830556422472
leaf_count=108 80 154 3738 2667 377 839 80 3413 209 628 1559 83 80
internal_value=0.00498563 0.00341188 0.00400197 0.00203734 0.00712862 0.0051232 -0.00141809 0.00732401 0.00189913 -0.0029625 0.00691504 0.000484256 0.0106577
internal_weight=4268.59 2478.82 2212.32 817.312 1789.77 1395.01 266.496 1736.19 81.8724 184.624 1576.52 53.5836 159.666
internal_count=14015 8395 7398 2821 5620 4577 997 5429 289 708 4972 191 457
is_linear=0
shrinkage=0.01


Tree=23
num_leaves=11
num_cat=0
split_feature=8 1 13 9 1 9 1 1 9 6
split_gain=119.855 59.9744 41.5993 42.7379 19.2591 14.7443 14.1722 10.9177 5.6502 0.558289
threshold=0.33841168132595206 -0.0058300925082195145 1.0000000180025095e-35 0.83525144893172887 -0.051622356228855658 0.26050066526923249 0.0067075345184721301 -0.006323890087604477 0.19374792574581673 -0.0090537549031322034
decision_type=2 2 2 2 2 2 2 2 2 2
left_child=6 4 3 -3 -2 -6 7 9 -9 -1
right_child=1 2 -4 -5 5 -7 -8 8 -10 -11
leaf_value=0.00034273636246736543 0.011088401984240088 0.0040485999195323452 -0.0048011537833933674 0.0090954092032596995 0.0017922086149968236 0.0067207425969596606 0.0041267878136801656 -0.0032439234132728752 0.0004903075200649729 0.0032337324581062639
leaf_weight=22.749694794416428 119.92181770503521 2074.3929162472486 40.25459885597229 186.12276619672775 78.254352420568466 1449.9278251081705 38.505824699997902 197.61322858929634 41.830016449093819 23.571781784296036
leaf_count=81 338 6921 153 564 268 4570 130 759 151 80
internal_value=0.00493187 0.00541114 0.00431952 0.00450677 0.00689377 0.00648816 -0.000861903 -0.00168472 -0.00255797 0.00230439
internal_weight=4273.14 3948.87 2300.77 2260.52 1648.1 1528.18 324.271 285.765 239.443 46.3215
internal_count=14015 12814 7638 7485 5176 4838 1201 1071 910 161
is_linear=0
shrinkage=0.01


Tree=24
num_leaves=14
num_cat=0
split_feature=7 8 12 12 12 6 0 4 9 6 12 12 12
split_gain=118.018 82.8271 61.4843 43.6223 20.7559 12.7613 19.4092 12.759 11.8167 9.59042 7.36892 6.59874 4.68369
threshold=-0.030352876098289457 0.33841168132595206 -0.011807126902955154 -0.00031562889233138764 -0.00017808416224623921 -0.020265147490193921 33.533721618418568 0.76512614837481152 0.40115052224703868 -0.0020824041034789849 -0.00039878523163250351 0.001378152402122468 0.0091205682468081823
decision_type=2 2 2 2 2 2 2 2 2 2 2 2 2
left_child=5 4 -3 -4 9 8 11 -6 -1 -2 -10 -7 -8
right_child=1 2 3 -5 7 6 12 -9 10 -11 -12 -13 -14
leaf_value=0.002124664764885651 -0.00051997460372607183 0.013611539684258558 0.002744082277201187 0.0053001928909681938 -0.0008176699319447252 0.0036680638013874209 0.0068275591997549638 0.0043947138171026006 0.0079464302446873667 -0.0057419439702625988 0.012456686757550886 -0.0013601349960002951 0.01223870620662856
leaf_weight=30.470044925808907 69.747084647417068 64.064587697386742 1271.7012217193842 1566.3479609489441 99.95012167096138 76.428273811936378 514.70584055781364 71.041870474815369 234.6619707942009 78.238403633236885 140.20630352199078 27.727979242801666 32.38050901889801
leaf_count=101 258 174 4301 5116 372 248 1606 240 709 313 392 98 87
internal_value=0.00487826 0.00389909 0.00442983 0.00417199 -0.000887214 0.00778947 0.00661913 0.00141582 0.00944109 -0.00353277 0.00993915 0.00223999 0.00737972
internal_weight=4277.67 3221.09 2902.11 2838.05 318.977 1056.58 651.243 170.992 405.338 147.985 374.868 104.156 547.086
internal_count=14015 10774 9591 9417 1183 3241 2039 612 1202 571 1101 346 1693
is_linear=0
shrinkage=0.01


Tree=25
num_leaves=13
num_cat=0
split_feature=9 3 3 7 12 12 7 5 12 12 1 5
split_gain=115.679 58.4611 39.1772 47.8691 23.6219 32.9686 16.4412 15.4506 15.3613 14.3456 10.6507 5.03664
threshold=0.49490385157336464 0.0059179652667507481 0.033761985912252331 0.0021075259761936809 0.001531686478564054 -0.0060339693624368853 -0.01018424228709369 0.0014677921061506673 0.0041400287860436933 0.0074552189173331404 -0.0036669449237932438 0.0034248788511351829
decision_type=2 2 2 2 2 2 2 2 2 2 2 2
left_child=1 7 3 8 5 -3 -6 10 -2 -5 -1 -9
right_child=2 4 -4 9 6 -7 -8 11 -10 -11 -12 -13
leaf_value=0.0015117791675641448 0.0076059316252253175 0.0077337625298309412 0.01189404475842667 0.0036041153972709138 0.0082975210750702785 0.0027602801839004027 0.0043507040905397766 0.0040150811392673496 0.0037854949295760727 -0.0024927834852798139 -0.0030739654084862736 -0.00053593510820556113
leaf_weight=58.902946189045906 1090.6983257979155 144.62860710918903 140.30204635858536 364.4859874099493 180.848861515522 1486.1748350411654 427.5342053771019 67.355664685368538 163.2832043915987 34.014221549034119 179.50346793234348 27.130295217037201
leaf_count=210 3368 446 392 1211 555 5032 1414 230 532 124 691 99
internal_value=0.00474087 0.00335203 0.00669824 0.00618219 0.00393159 0.0032519 0.00565532 -0.000518154 0.00715026 0.00301095 -0.00188546 0.00268639
internal_weight=4364.86 2572.08 1792.78 1652.48 2239.19 1630.8 608.383 332.892 1253.98 398.5 238.406 94.486
internal_count=14304 8677 5627 5235 7447 5478 1969 1230 3900 1335 901 329
is_linear=0
shrinkage=0.01


Tree=26
num_leaves=13
num_cat=0
split_feature=2 3 3 2 9 7 3 5 1 1 9 3
split_gain=123.466 57.7918 40.2614 34.4158 20.4486 18.7727 16.5365 13.7515 10.7421 10.6549 10.468 7.44358
threshold=-0.017882534881212928 0.0059179652667507481 0.023846753711470454 -0.079877852269945801 0.28624755743176772 -0.013304877370470923 0.017077757101773949 0.00061994040505786174 -0.0036669449237932438 -0.0014572278211874791 2.2594558231517978 0.0081211183182839063
decision_type=2 2 2 2 2 2 2 2 2 2 2 2
left_child=3 7 5 10 11 -3 -6 8 -2 -9 -1 -5
right_child=1 2 -4 4 6 -7 -8 9 -10 -11 -12 -13
leaf_value=0.012802688606829395 0.0015975617283160615 0.0053958923177489879 0.0089679875771156922 -0.0027638025978441224 0.007632423344716005 0.0031480545985413007 0.0047537012030005894 -0.002990438883133249 -0.0034582913382648467 0.0031643921119670075 0.0038004582393313031 0.0030744676745578636
leaf_weight=136.3940361738205 48.047780558466911 512.76922661066055 150.17191064357758 23.280176192522049 802.19701735675335 1935.3989123106003 394.49222512543201 26.044963374733925 143.27639578282833 116.29392568767071 29.665281444787979 51.098081856966019
leaf_count=370 171 1654 446 87 2475 6521 1259 100 555 405 92 169
internal_value=0.00469013 0.00348605 0.00398777 0.0070987 0.00642256 0.00364297 0.00673899 -0.000394242 -0.00212264 0.00185017 0.0115585 0.00101761
internal_weight=4369.13 2932 2598.34 1437.13 1271.07 2448.17 1196.69 333.663 191.324 142.339 166.059 74.3783
internal_count=14304 9852 8621 4452 3990 8175 3734 1231 726 505 462 256
is_linear=0
shrinkage=0.01


end of trees

feature_importances:
btc_1h_return=64
atr_ratio=59
downside_vol=35
ema_dist_slow=33
ret_24h=29
volume_ratio=27
ema_dist_fast=20
ret_1h=20
realized_vol=19
ret_6h=18
rsi=9
regime=4

parameters:
[boosting: gbdt]
[objective: binary]
[metric: binary_logloss]
[tree_learner: serial]
[device_type: cpu]
[data_sample_strategy: bagging]
[data: ]
[valid: ]
[num_iterations: 1500]
[learning_rate: 0.01]
[num_leaves: 15]
[num_threads: 0]
[seed: 0]
[deterministic: 0]
[force_col_wise: 0]
[force_row_wise: 0]
[histogram_pool_size: -1]
[max_depth: 4]
[min_data_in_leaf: 80]
[min_sum_hessian_in_leaf: 0.001]
[bagging_fraction: 0.5]
[pos_bagging_fraction: 1]
[neg_bagging_fraction: 1]
[bagging_freq: 5]
[bagging_seed: 3]
[bagging_by_query: 0]
[feature_fraction: 0.5]
[feature_fraction_bynode: 1]
[feature_fraction_seed: 2]
[extra_trees: 0]
[extra_seed: 6]
[early_stopping_round: 0]
[early_stopping_min_delta: 0]
[first_metric_only: 0]
[max_delta_step: 0]
[lambda_l1: 1]
[lambda_l2: 10]
[linear_lambda: 0]
[min_gain_to_split: 0]
[drop_rate: 0.1]
[max_drop: 50]
[skip_drop: 0.5]
[xgboost_dart_mode: 0]
[uniform_drop: 0]
[drop_seed: 4]
[top_rate: 0.2]
[other_rate: 0.1]
[min_data_per_group: 100]
[max_cat_threshold: 32]
[cat_l2: 10]
[cat_smooth: 10]
[max_cat_to_onehot: 4]
[top_k: 20]
[monotone_constraints: ]
[monotone_constraints_method: basic]
[monotone_penalty: 0]
[feature_contri: ]
[forcedsplits_filename: ]
[refit_decay_rate: 0.9]
[cegb_tradeoff: 1]
[cegb_penalty_split: 0]
[cegb_penalty_feature_lazy: ]
[cegb_penalty_feature_coupled: ]
[path_smooth: 0]
[interaction_constraints: ]
[verbosity: -1]
[saved_feature_importance_type: 0]
[use_quantized_grad: 0]
[num_grad_quant_bins: 4]
[quant_train_renew_leaf: 0]
[stochastic_rounding: 1]
[linear_tree: 0]
[max_bin: 255]
[max_bin_by_feature: ]
[min_data_in_bin: 3]
[bin_construct_sample_cnt: 200000]
[data_random_seed: 1]
[is_enable_sparse: 1]
[enable_bundle: 1]
[use_missing: 1]
[zero_as_missing: 0]
[feature_pre_filter: 0]
[pre_partition: 0]
[two_round: 0]
[header: 0]
[label_column: ]
[weight_column: ]
[group_column: ]
[ignore_column: ]
[categorical_feature: ]
[forcedbins_filename: ]
[precise_float_parser: 0]
[parser_config_file: ]
[objective_seed: 5]
[num_class: 1]
[is_unbalance: 1]
[scale_pos_weight: 1]
[sigmoid: 1]
[boost_from_average: 1]
[reg_sqrt: 0]
[alpha: 0.9]
[fair_c: 1]
[poisson_max_delta_step: 0.7]
[tweedie_variance_power: 1.5]
[lambdarank_truncation_level: 30]
[lambdarank_norm: 1]
[label_gain: ]
[lambdarank_position_bias_regularization: 0]
[eval_at: ]
[multi_error_top_k: 1]
[auc_mu_weights: ]
[num_machines: 1]
[local_listen_port: 12400]
[time_out: 120]
[machine_list_filename: ]
[machines: ]
[gpu_platform_id: -1]
[gpu_device_id: -1]
[gpu_use_dp: 0]
[num_gpu: 1]

end of parameters

pandas_categorical:null
